digraph Tree {
node [shape=box] ;
0 [label="X[6] <= -214879.0\ngini = 0.765\nsamples = 3891\nvalue = [666, 12, 9, 12, 16, 8, 11, 11, 12, 379, 1443\n903, 6, 4, 12, 174, 184, 10, 7, 12]"] ;
1 [label="X[1] <= -154650.0\ngini = 0.338\nsamples = 1114\nvalue = [8, 3, 2, 6, 5, 0, 3, 3, 2, 2, 2, 891, 2, 4\n4, 166, 3, 3, 1, 4]"] ;
0 -> 1 [labeldistance=2.5, labelangle=45, headlabel="True"] ;
2 [label="X[6] <= -214929.5\ngini = 0.12\nsamples = 176\nvalue = [2, 2, 1, 0, 0, 0, 0, 0, 0, 0, 0, 1, 0, 0\n2, 165, 1, 0, 0, 2]"] ;
1 -> 2 ;
3 [label="X[3] <= 246978.5\ngini = 0.11\nsamples = 175\nvalue = [2, 2, 1, 0, 0, 0, 0, 0, 0, 0, 0, 0, 0, 0\n2, 165, 1, 0, 0, 2]"] ;
2 -> 3 ;
4 [label="X[0] <= 162399.0\ngini = 0.052\nsamples = 150\nvalue = [0, 1, 1, 0, 0, 0, 0, 0, 0, 0, 0, 0, 0, 0\n1, 146, 0, 0, 0, 1]"] ;
3 -> 4 ;
5 [label="X[1] <= -155723.0\ngini = 0.04\nsamples = 148\nvalue = [0, 0, 1, 0, 0, 0, 0, 0, 0, 0, 0, 0, 0, 0\n1, 145, 0, 0, 0, 1]"] ;
4 -> 5 ;
6 [label="gini = 0.027\nsamples = 146\nvalue = [0, 0, 1, 0, 0, 0, 0, 0, 0, 0, 0, 0, 0, 0\n0, 144, 0, 0, 0, 1]"] ;
5 -> 6 ;
7 [label="gini = 0.5\nsamples = 2\nvalue = [0, 0, 0, 0, 0, 0, 0, 0, 0, 0, 0, 0, 0, 0\n1, 1, 0, 0, 0, 0]"] ;
5 -> 7 ;
8 [label="X[3] <= -30264.5\ngini = 0.5\nsamples = 2\nvalue = [0, 1, 0, 0, 0, 0, 0, 0, 0, 0, 0, 0, 0, 0\n0, 1, 0, 0, 0, 0]"] ;
4 -> 8 ;
9 [label="gini = 0.0\nsamples = 1\nvalue = [0, 1, 0, 0, 0, 0, 0, 0, 0, 0, 0, 0, 0, 0\n0, 0, 0, 0, 0, 0]"] ;
8 -> 9 ;
10 [label="gini = 0.0\nsamples = 1\nvalue = [0, 0, 0, 0, 0, 0, 0, 0, 0, 0, 0, 0, 0, 0\n0, 1, 0, 0, 0, 0]"] ;
8 -> 10 ;
11 [label="X[1] <= -163868.0\ngini = 0.41\nsamples = 25\nvalue = [2, 1, 0, 0, 0, 0, 0, 0, 0, 0, 0, 0, 0, 0\n1, 19, 1, 0, 0, 1]"] ;
3 -> 11 ;
12 [label="X[7] <= 69888.5\ngini = 0.31\nsamples = 23\nvalue = [1, 1, 0, 0, 0, 0, 0, 0, 0, 0, 0, 0, 0, 0\n1, 19, 0, 0, 0, 1]"] ;
11 -> 12 ;
13 [label="gini = 0.248\nsamples = 22\nvalue = [0, 1, 0, 0, 0, 0, 0, 0, 0, 0, 0, 0, 0, 0\n1, 19, 0, 0, 0, 1]"] ;
12 -> 13 ;
14 [label="gini = 0.0\nsamples = 1\nvalue = [1, 0, 0, 0, 0, 0, 0, 0, 0, 0, 0, 0, 0, 0\n0, 0, 0, 0, 0, 0]"] ;
12 -> 14 ;
15 [label="X[0] <= -28402.0\ngini = 0.5\nsamples = 2\nvalue = [1, 0, 0, 0, 0, 0, 0, 0, 0, 0, 0, 0, 0, 0\n0, 0, 1, 0, 0, 0]"] ;
11 -> 15 ;
16 [label="gini = 0.0\nsamples = 1\nvalue = [0, 0, 0, 0, 0, 0, 0, 0, 0, 0, 0, 0, 0, 0\n0, 0, 1, 0, 0, 0]"] ;
15 -> 16 ;
17 [label="gini = 0.0\nsamples = 1\nvalue = [1, 0, 0, 0, 0, 0, 0, 0, 0, 0, 0, 0, 0, 0\n0, 0, 0, 0, 0, 0]"] ;
15 -> 17 ;
18 [label="gini = 0.0\nsamples = 1\nvalue = [0, 0, 0, 0, 0, 0, 0, 0, 0, 0, 0, 1, 0, 0\n0, 0, 0, 0, 0, 0]"] ;
2 -> 18 ;
19 [label="X[3] <= -301384.5\ngini = 0.1\nsamples = 938\nvalue = [6, 1, 1, 6, 5, 0, 3, 3, 2, 2, 2, 890, 2, 4\n2, 1, 2, 3, 1, 2]"] ;
1 -> 19 ;
20 [label="gini = 0.0\nsamples = 1\nvalue = [0, 0, 0, 0, 0, 0, 0, 0, 0, 0, 0, 0, 0, 0\n0, 0, 0, 0, 1, 0]"] ;
19 -> 20 ;
21 [label="X[5] <= 68802.0\ngini = 0.098\nsamples = 937\nvalue = [6, 1, 1, 6, 5, 0, 3, 3, 2, 2, 2, 890, 2, 4\n2, 1, 2, 3, 0, 2]"] ;
19 -> 21 ;
22 [label="X[6] <= -215150.0\ngini = 0.096\nsamples = 935\nvalue = [6, 1, 1, 6, 5, 0, 3, 2, 2, 2, 2, 889, 2, 4\n2, 1, 2, 3, 0, 2]"] ;
21 -> 22 ;
23 [label="X[7] <= 23921.0\ngini = 0.091\nsamples = 924\nvalue = [6, 1, 1, 6, 4, 0, 3, 2, 2, 2, 2, 881, 1, 4\n1, 1, 2, 3, 0, 2]"] ;
22 -> 23 ;
24 [label="gini = 0.074\nsamples = 823\nvalue = [4, 1, 1, 5, 4, 0, 3, 2, 0, 2, 2, 792, 0, 1\n0, 0, 2, 3, 0, 1]"] ;
23 -> 24 ;
25 [label="gini = 0.221\nsamples = 101\nvalue = [2, 0, 0, 1, 0, 0, 0, 0, 2, 0, 0, 89, 1, 3\n1, 1, 0, 0, 0, 1]"] ;
23 -> 25 ;
26 [label="X[7] <= -143960.0\ngini = 0.446\nsamples = 11\nvalue = [0, 0, 0, 0, 1, 0, 0, 0, 0, 0, 0, 8, 1, 0\n1, 0, 0, 0, 0, 0]"] ;
22 -> 26 ;
27 [label="gini = 0.75\nsamples = 4\nvalue = [0, 0, 0, 0, 1, 0, 0, 0, 0, 0, 0, 1, 1, 0\n1, 0, 0, 0, 0, 0]"] ;
26 -> 27 ;
28 [label="gini = 0.0\nsamples = 7\nvalue = [0, 0, 0, 0, 0, 0, 0, 0, 0, 0, 0, 7, 0, 0\n0, 0, 0, 0, 0, 0]"] ;
26 -> 28 ;
29 [label="X[8] <= 225850.5\ngini = 0.5\nsamples = 2\nvalue = [0, 0, 0, 0, 0, 0, 0, 1, 0, 0, 0, 1, 0, 0\n0, 0, 0, 0, 0, 0]"] ;
21 -> 29 ;
30 [label="gini = 0.0\nsamples = 1\nvalue = [0, 0, 0, 0, 0, 0, 0, 1, 0, 0, 0, 0, 0, 0\n0, 0, 0, 0, 0, 0]"] ;
29 -> 30 ;
31 [label="gini = 0.0\nsamples = 1\nvalue = [0, 0, 0, 0, 0, 0, 0, 0, 0, 0, 0, 1, 0, 0\n0, 0, 0, 0, 0, 0]"] ;
29 -> 31 ;
32 [label="X[2] <= 190498.0\ngini = 0.652\nsamples = 2777\nvalue = [658, 9, 7, 6, 11, 8, 8, 8, 10, 377, 1441, 12\n4, 0, 8, 8, 181, 7, 6, 8]"] ;
0 -> 32 [labeldistance=2.5, labelangle=-45, headlabel="False"] ;
33 [label="X[0] <= 58673.0\ngini = 0.391\nsamples = 1902\nvalue = [4, 5, 5, 4, 8, 3, 7, 6, 8, 371, 1437, 10, 4\n0, 4, 7, 6, 3, 4, 6]"] ;
32 -> 33 ;
34 [label="X[6] <= -90622.0\ngini = 0.095\nsamples = 1510\nvalue = [3, 5, 4, 3, 6, 2, 4, 5, 6, 6, 1436, 8, 3, 0\n3, 3, 1, 2, 4, 6]"] ;
33 -> 34 ;
35 [label="X[1] <= -374999.0\ngini = 0.094\nsamples = 1509\nvalue = [3, 5, 4, 3, 6, 2, 4, 4, 6, 6, 1436, 8, 3, 0\n3, 3, 1, 2, 4, 6]"] ;
34 -> 35 ;
36 [label="X[6] <= -207751.0\ngini = 0.5\nsamples = 2\nvalue = [0, 0, 0, 0, 0, 0, 0, 0, 0, 0, 1, 0, 0, 0\n1, 0, 0, 0, 0, 0]"] ;
35 -> 36 ;
37 [label="gini = 0.0\nsamples = 1\nvalue = [0, 0, 0, 0, 0, 0, 0, 0, 0, 0, 1, 0, 0, 0\n0, 0, 0, 0, 0, 0]"] ;
36 -> 37 ;
38 [label="gini = 0.0\nsamples = 1\nvalue = [0, 0, 0, 0, 0, 0, 0, 0, 0, 0, 0, 0, 0, 0\n1, 0, 0, 0, 0, 0]"] ;
36 -> 38 ;
39 [label="X[1] <= 218385.0\ngini = 0.093\nsamples = 1507\nvalue = [3, 5, 4, 3, 6, 2, 4, 4, 6, 6, 1435, 8, 3, 0\n2, 3, 1, 2, 4, 6]"] ;
35 -> 39 ;
40 [label="gini = 0.091\nsamples = 1500\nvalue = [3, 4, 4, 3, 6, 1, 4, 4, 6, 6, 1430, 8, 3, 0\n2, 3, 1, 2, 4, 6]"] ;
39 -> 40 ;
41 [label="gini = 0.449\nsamples = 7\nvalue = [0, 1, 0, 0, 0, 1, 0, 0, 0, 0, 5, 0, 0, 0\n0, 0, 0, 0, 0, 0]"] ;
39 -> 41 ;
42 [label="gini = 0.0\nsamples = 1\nvalue = [0, 0, 0, 0, 0, 0, 0, 1, 0, 0, 0, 0, 0, 0\n0, 0, 0, 0, 0, 0]"] ;
34 -> 42 ;
43 [label="X[4] <= -561309.0\ngini = 0.133\nsamples = 392\nvalue = [1, 0, 1, 1, 2, 1, 3, 1, 2, 365, 1, 2, 1, 0\n1, 4, 5, 1, 0, 0]"] ;
33 -> 43 ;
44 [label="gini = 0.0\nsamples = 1\nvalue = [0, 0, 0, 0, 0, 0, 0, 0, 0, 0, 0, 0, 0, 0\n1, 0, 0, 0, 0, 0]"] ;
43 -> 44 ;
45 [label="X[4] <= 434888.0\ngini = 0.128\nsamples = 391\nvalue = [1, 0, 1, 1, 2, 1, 3, 1, 2, 365, 1, 2, 1, 0\n0, 4, 5, 1, 0, 0]"] ;
43 -> 45 ;
46 [label="X[1] <= -292464.5\ngini = 0.124\nsamples = 390\nvalue = [1, 0, 0, 1, 2, 1, 3, 1, 2, 365, 1, 2, 1, 0\n0, 4, 5, 1, 0, 0]"] ;
45 -> 46 ;
47 [label="gini = 0.0\nsamples = 1\nvalue = [0, 0, 0, 0, 1, 0, 0, 0, 0, 0, 0, 0, 0, 0\n0, 0, 0, 0, 0, 0]"] ;
46 -> 47 ;
48 [label="gini = 0.119\nsamples = 389\nvalue = [1, 0, 0, 1, 1, 1, 3, 1, 2, 365, 1, 2, 1, 0\n0, 4, 5, 1, 0, 0]"] ;
46 -> 48 ;
49 [label="gini = 0.0\nsamples = 1\nvalue = [0, 0, 1, 0, 0, 0, 0, 0, 0, 0, 0, 0, 0, 0\n0, 0, 0, 0, 0, 0]"] ;
45 -> 49 ;
50 [label="X[4] <= -216760.0\ngini = 0.401\nsamples = 875\nvalue = [654, 4, 2, 2, 3, 5, 1, 2, 2, 6, 4, 2, 0, 0\n4, 1, 175, 4, 2, 2]"] ;
32 -> 50 ;
51 [label="X[1] <= -95843.5\ngini = 0.134\nsamples = 187\nvalue = [1, 1, 1, 1, 2, 1, 1, 0, 0, 1, 1, 0, 0, 0\n0, 0, 174, 1, 1, 1]"] ;
50 -> 51 ;
52 [label="X[0] <= 121383.5\ngini = 0.312\nsamples = 58\nvalue = [1, 1, 0, 1, 2, 1, 1, 0, 0, 0, 0, 0, 0, 0\n0, 0, 48, 1, 1, 1]"] ;
51 -> 52 ;
53 [label="X[2] <= 198453.5\ngini = 0.287\nsamples = 57\nvalue = [1, 1, 0, 0, 2, 1, 1, 0, 0, 0, 0, 0, 0, 0\n0, 0, 48, 1, 1, 1]"] ;
52 -> 53 ;
54 [label="gini = 0.0\nsamples = 1\nvalue = [0, 0, 0, 0, 0, 1, 0, 0, 0, 0, 0, 0, 0, 0\n0, 0, 0, 0, 0, 0]"] ;
53 -> 54 ;
55 [label="gini = 0.262\nsamples = 56\nvalue = [1, 1, 0, 0, 2, 0, 1, 0, 0, 0, 0, 0, 0, 0\n0, 0, 48, 1, 1, 1]"] ;
53 -> 55 ;
56 [label="gini = 0.0\nsamples = 1\nvalue = [0, 0, 0, 1, 0, 0, 0, 0, 0, 0, 0, 0, 0, 0\n0, 0, 0, 0, 0, 0]"] ;
52 -> 56 ;
57 [label="X[1] <= 92009.0\ngini = 0.046\nsamples = 129\nvalue = [0, 0, 1, 0, 0, 0, 0, 0, 0, 1, 1, 0, 0, 0\n0, 0, 126, 0, 0, 0]"] ;
51 -> 57 ;
58 [label="X[0] <= -78265.0\ngini = 0.018\nsamples = 111\nvalue = [0, 0, 0, 0, 0, 0, 0, 0, 0, 1, 0, 0, 0, 0\n0, 0, 110, 0, 0, 0]"] ;
57 -> 58 ;
59 [label="gini = 0.245\nsamples = 7\nvalue = [0, 0, 0, 0, 0, 0, 0, 0, 0, 1, 0, 0, 0, 0\n0, 0, 6, 0, 0, 0]"] ;
58 -> 59 ;
60 [label="gini = 0.0\nsamples = 104\nvalue = [0, 0, 0, 0, 0, 0, 0, 0, 0, 0, 0, 0, 0, 0\n0, 0, 104, 0, 0, 0]"] ;
58 -> 60 ;
61 [label="X[1] <= 97346.5\ngini = 0.204\nsamples = 18\nvalue = [0, 0, 1, 0, 0, 0, 0, 0, 0, 0, 1, 0, 0, 0\n0, 0, 16, 0, 0, 0]"] ;
57 -> 61 ;
62 [label="gini = 0.0\nsamples = 1\nvalue = [0, 0, 1, 0, 0, 0, 0, 0, 0, 0, 0, 0, 0, 0\n0, 0, 0, 0, 0, 0]"] ;
61 -> 62 ;
63 [label="gini = 0.111\nsamples = 17\nvalue = [0, 0, 0, 0, 0, 0, 0, 0, 0, 0, 1, 0, 0, 0\n0, 0, 16, 0, 0, 0]"] ;
61 -> 63 ;
64 [label="X[7] <= 206776.0\ngini = 0.099\nsamples = 688\nvalue = [653, 3, 1, 1, 1, 4, 0, 2, 2, 5, 3, 2, 0, 0\n4, 1, 1, 3, 1, 1]"] ;
50 -> 64 ;
65 [label="X[1] <= 238408.5\ngini = 0.096\nsamples = 687\nvalue = [653, 3, 1, 1, 1, 4, 0, 2, 2, 4, 3, 2, 0, 0\n4, 1, 1, 3, 1, 1]"] ;
64 -> 65 ;
66 [label="X[5] <= 65728.0\ngini = 0.094\nsamples = 685\nvalue = [652, 3, 1, 1, 1, 3, 0, 2, 2, 4, 3, 2, 0, 0\n4, 1, 1, 3, 1, 1]"] ;
65 -> 66 ;
67 [label="gini = 0.089\nsamples = 677\nvalue = [646, 3, 1, 1, 1, 2, 0, 2, 1, 4, 3, 2, 0, 0\n4, 1, 1, 3, 1, 1]"] ;
66 -> 67 ;
68 [label="gini = 0.406\nsamples = 8\nvalue = [6, 0, 0, 0, 0, 1, 0, 0, 1, 0, 0, 0, 0, 0\n0, 0, 0, 0, 0, 0]"] ;
66 -> 68 ;
69 [label="X[6] <= -196789.0\ngini = 0.5\nsamples = 2\nvalue = [1, 0, 0, 0, 0, 1, 0, 0, 0, 0, 0, 0, 0, 0\n0, 0, 0, 0, 0, 0]"] ;
65 -> 69 ;
70 [label="gini = 0.0\nsamples = 1\nvalue = [0, 0, 0, 0, 0, 1, 0, 0, 0, 0, 0, 0, 0, 0\n0, 0, 0, 0, 0, 0]"] ;
69 -> 70 ;
71 [label="gini = 0.0\nsamples = 1\nvalue = [1, 0, 0, 0, 0, 0, 0, 0, 0, 0, 0, 0, 0, 0\n0, 0, 0, 0, 0, 0]"] ;
69 -> 71 ;
72 [label="gini = 0.0\nsamples = 1\nvalue = [0, 0, 0, 0, 0, 0, 0, 0, 0, 1, 0, 0, 0, 0\n0, 0, 0, 0, 0, 0]"] ;
64 -> 72 ;
}